tree
version=v4
num_class=1
num_tree_per_iteration=1
label_index=0
max_feature_idx=346
objective=binary sigmoid:1
feature_names=Sector Industry Free_Cash_Flow Repurchase_Of_Capital_Stock Repayment_Of_Debt Issuance_Of_Debt Capital_Expenditure End_Cash_Position Beginning_Cash_Position Effect_Of_Exchange_Rate_Changes Changes_In_Cash Financing_Cash_Flow Cash_Flow_From_Continuing_Financing_Activities Net_Other_Financing_Charges Proceeds_From_Stock_Option_Exercised Cash_Dividends_Paid Preferred_Stock_Dividend_Paid Common_Stock_Dividend_Paid Net_Common_Stock_Issuance Common_Stock_Payments Net_Issuance_Payments_Of_Debt Net_Long_Term_Debt_Issuance Long_Term_Debt_Payments Long_Term_Debt_Issuance Investing_Cash_Flow Cash_Flow_From_Continuing_Investing_Activities Net_Other_Investing_Changes Net_Investment_Purchase_And_Sale Sale_Of_Investment Purchase_Of_Investment Capital_Expenditure_Reported Operating_Cash_Flow Cash_Flow_From_Continuing_Operating_Activities Change_In_Working_Capital Change_In_Other_Working_Capital Change_In_Other_Current_Liabilities Change_In_Other_Current_Assets Change_In_Payables_And_Accrued_Expense Change_In_Accrued_Expense Change_In_Payable Change_In_Account_Payable Change_In_Tax_Payable Change_In_Income_Tax_Payable Change_In_Prepaid_Assets Change_In_Inventory Change_In_Receivables Other_Non_Cash_Items Stock_Based_Compensation Provisionand_Write_Offof_Assets Deferred_Tax Deferred_Income_Tax Depreciation_Amortization_Depletion Depreciation_And_Amortization Depreciation Operating_Gains_Losses Pension_And_Employee_Benefit_Expense Earnings_Losses_From_Equity_Investments Gain_Loss_On_Investment_Securities Net_Income_From_Continuing_Operations Ordinary_Shares_Number Share_Issued Net_Debt Total_Debt Tangible_Book_Value Invested_Capital Working_Capital Net_Tangible_Assets Capital_Lease_Obligations Common_Stock_Equity Total_Capitalization Total_Equity_Gross_Minority_Interest Minority_Interest Stockholders_Equity Gains_Losses_Not_Affecting_Retained_Earnings Other_Equity_Adjustments Retained_Earnings Additional_Paid_In_Capital Capital_Stock Common_Stock Preferred_Stock Total_Liabilities_Net_Minority_Interest Total_Non_Current_Liabilities_Net_Minority_Interest Other_Non_Current_Liabilities Derivative_Product_Liabilities Employee_Benefits Non_Current_Pension_And_Other_Postretirement_Benefit_Plans Tradeand_Other_Payables_Non_Current Non_Current_Deferred_Liabilities Non_Current_Deferred_Revenue Long_Term_Debt_And_Capital_Lease_Obligation Long_Term_Capital_Lease_Obligation Long_Term_Debt Long_Term_Provisions Current_Liabilities Other_Current_Liabilities Current_Debt_And_Capital_Lease_Obligation Current_Debt Other_Current_Borrowings Pensionand_Other_Post_Retirement_Benefit_Plans_Current Payables_And_Accrued_Expenses Payables Total_Tax_Payable Accounts_Payable Total_Assets Total_Non_Current_Assets Other_Non_Current_Assets Defined_Pension_Benefit Non_Current_Prepaid_Assets Non_Current_Deferred_Assets Non_Current_Deferred_Taxes_Assets Non_Current_Accounts_Receivable Financial_Assets Investments_And_Advances Goodwill_And_Other_Intangible_Assets Other_Intangible_Assets Goodwill Net_PPE Accumulated_Depreciation Gross_PPE Construction_In_Progress Other_Properties Machinery_Furniture_Equipment Land_And_Improvements Properties Current_Assets Other_Current_Assets Hedging_Assets_Current Assets_Held_For_Sale_Current Prepaid_Assets Inventory Other_Inventories Finished_Goods Work_In_Process Raw_Materials Receivables Other_Receivables Accounts_Receivable Cash_Cash_Equivalents_And_Short_Term_Investments Cash_And_Cash_Equivalents Tax_Effect_Of_Unusual_Items Tax_Rate_For_Calcs Normalized_EBITDA Total_Unusual_Items Total_Unusual_Items_Excluding_Goodwill Net_Income_From_Continuing_Operation_Net_Minority_Interest Reconciled_Depreciation Reconciled_Cost_Of_Revenue EBITDA EBIT Net_Interest_Income Interest_Expense Normalized_Income Net_Income_From_Continuing_And_Discontinued_Operation Total_Expenses Diluted_Average_Shares Basic_Average_Shares Diluted_EPS Basic_EPS Diluted_NI_Availto_Com_Stockholders Net_Income_Common_Stockholders Net_Income Minority_Interests Net_Income_Including_Noncontrolling_Interests Net_Income_Continuous_Operations Tax_Provision Pretax_Income Other_Income_Expense Other_Non_Operating_Income_Expenses Special_Income_Charges Gain_On_Sale_Of_Ppe Gain_On_Sale_Of_Business Other_Special_Charges Write_Off Restructuring_And_Mergern_Acquisition Earnings_From_Equity_Interest Gain_On_Sale_Of_Security Net_Non_Operating_Interest_Income_Expense Interest_Expense_Non_Operating Operating_Income Operating_Expense Other_Operating_Expenses Depreciation_Amortization_Depletion_Income_Statement Depreciation_And_Amortization_In_Income_Statement Research_And_Development Selling_General_And_Administration Gross_Profit Cost_Of_Revenue Total_Revenue Operating_Revenue Issuance_Of_Capital_Stock Interest_Paid_Supplemental_Data Income_Tax_Paid_Supplemental_Data Common_Stock_Issuance Net_Short_Term_Debt_Issuance Short_Term_Debt_Payments Short_Term_Debt_Issuance Net_Investment_Properties_Purchase_And_Sale Sale_Of_Investment_Properties Purchase_Of_Investment_Properties Changes_In_Account_Receivables Non_Current_Deferred_Taxes_Liabilities Current_Deferred_Liabilities Current_Deferred_Revenue Line_Of_Credit Other_Payable Investment_Properties Restricted_Cash Allowance_For_Doubtful_Accounts_Receivable Gross_Accounts_Receivable Interest_Income Rent_Expense_Supplemental Total_Operating_Income_As_Reported Average_Dilution_Earnings Otherunder_Preferred_Stock_Dividend Interest_Income_Non_Operating General_And_Administrative_Expense Other_Gand_A Net_Business_Purchase_And_Sale Purchase_Of_Business Net_PPE_Purchase_And_Sale Purchase_Of_PPE Cash_From_Discontinued_Operating_Activities Dividend_Received_Cfo Asset_Impairment_Charge Amortization_Of_Securities Amortization_Cash_Flow Amortization_Of_Intangibles Current_Capital_Lease_Obligation Current_Provisions Current_Accrued_Expenses Income_Tax_Payable Other_Investments Leases Buildings_And_Improvements Net_Income_Discontinuous_Operations Impairment_Of_Capital_Assets Amortization Amortization_Of_Intangibles_Income_Statement Net_Preferred_Stock_Issuance Preferred_Stock_Payments Preferred_Stock_Issuance Dividends_Received_Cfi Gain_Loss_On_Sale_Of_PPE Treasury_Shares_Number Preferred_Shares_Number Preferred_Stock_Equity Held_To_Maturity_Securities Long_Term_Equity_Investment Cash_Cash_Equivalents_And_Federal_Funds_Sold Preferred_Stock_Dividends Selling_And_Marketing_Expense Salaries_And_Wages Other_Non_Interest_Expense Sale_Of_Business Treasury_Stock Dividends_Payable Investmentin_Financial_Assets Available_For_Sale_Securities Other_Short_Term_Investments Preferred_Securities_Outside_Stock_Equity Total_Other_Finance_Cost Other_Cash_Adjustment_Outside_Changein_Cash Cash_From_Discontinued_Investing_Activities Sale_Of_PPE Net_Foreign_Currency_Exchange_Gain_Loss Liabilities_Heldfor_Sale_Non_Current Investmentsin_Joint_Venturesat_Cost Receivables_Adjustments_Allowances Taxes_Receivable Cash_Financial Financial_Assets_Designatedas_Fair_Value_Through_Profitor_Loss_Total Professional_Expense_And_Contract_Services_Expense Current_Notes_Payable Earnings_From_Equity_Interest_Net_Of_Tax Loss_Adjustment_Expense Net_Policyholder_Benefits_And_Claims Interest_Payable Investments_In_Other_Ventures_Under_Equity_Method Investmentsin_Associatesat_Cost Current_Deferred_Assets Interest_Paid_Cff Change_In_Interest_Payable Unrealized_Gain_Loss_On_Investment_Securities Gain_Loss_On_Sale_Of_Business Dueto_Related_Parties_Current Commercial_Paper Other_Taxes Net_Intangibles_Purchase_And_Sale Sale_Of_Intangibles Purchase_Of_Intangibles Taxes_Refund_Paid Other_Equity_Interest Fixed_Assets_Revaluation_Reserve Minimum_Pension_Liabilities Unrealized_Gain_Loss Policyholder_Benefits_Gross Policyholder_Benefits_Ceded Non_Current_Note_Receivables Cash_Equivalents Notes_Receivable Loans_Receivable Other_Cash_Adjustment_Inside_Changein_Cash Foreign_Currency_Translation_Adjustments Depreciation_Income_Statement Interest_Received_Cfo Inventories_Adjustments_Allowances Excess_Tax_Benefit_From_Stock_Based_Compensation Trading_Securities Interest_Received_Cfi Rent_And_Landing_Fees Provision_For_Doubtful_Accounts Duefrom_Related_Parties_Current Cash_From_Discontinued_Financing_Activities Insurance_And_Claims Accrued_Interest_Receivable Dividend_Paid_Cfo Non_Current_Accrued_Expenses Interest_Paid_Cfo Current_Deferred_Taxes_Liabilities Cash_Flow_From_Discontinued_Operation Occupancy_And_Equipment Net_Income_Extraordinary Total_Partnership_Capital Limited_Partnership_Capital Dueto_Related_Parties_Non_Current Duefrom_Related_Parties_Non_Current Current_Deferred_Taxes_Assets General_Partnership_Capital Securities_Amortization Cash_Flowsfromusedin_Operating_Activities_Direct Taxes_Refund_Paid_Direct Interest_Received_Direct Interest_Paid_Direct Dividends_Received_Direct Classesof_Cash_Payments Other_Cash_Paymentsfrom_Operating_Activities Paymentson_Behalfof_Employees Paymentsto_Suppliersfor_Goodsand_Services Classesof_Cash_Receiptsfrom_Operating_Activities Other_Cash_Receiptsfrom_Operating_Activities Receiptsfrom_Customers Excise_Taxes Change_In_Dividend_Payable Depletion Investmentsin_Subsidiariesat_Cost Restricted_Common_Stock Net_Income_From_Tax_Loss_Carryforward
feature_infos=[0:11] [0:142] [-2.2462925044529598:2.5720519898266283] [-1.5481320809011736:0.0757491271245503] [-0.59485973022007543:0.0596343724662316] [-0.061788330241194303:0.42990942397357218] [-0.122505191969017:0.063825361522910198] [-0.067822368222700394:1.6407123835592561] [-0.0667060859065461:1.7328360628877082] [-1.248299565149714:16.086845050302806] [-2.467537714932408:4.0021340614579524] [-0.3442214159262883:1.2908328680090344] [-0.3447342685903767:1.2903294249385795] [-0.0084206222247234005:1.9209283086471769] [-0.80391208447995355:7.5378748433862928] [-1.1297888037865844:0.055607939399761899] [-5.1381151140487908:0.73885252071968854] [-1.1357018664713794:0.055490096728382302] [-0.15004638195145689:0.0119798888144693] [-1.7584346036906688:0.084978816742354593] [-1.7308964755141862:0.83895818891866047] [-1.4412109191495652:0.83911835732220175] [-0.2492397878221442:0.055475380344724302] [-0.0591495856817503:0.37895641992511248] [-2.3379453543596407:0.23907676303922101] [-2.3369710577642411:0.2401657166923255] [-0.70755848291773427:1.7479811376561061] [-6.4502503793949844:0.71006212148126968] [-0.095492139583804897:2.0105429644251944e-17] [-0.0078981786130057994:0.096650411558876895] [-10.974008881715577:0.69240354648407976] [-4.0737654167469177:4.839922728511965] [-4.0806509294272963:4.835185671405914] [-7.9443465201746797:4.6807767049159494] [-0.9104985483969632:3.8570881387596208] [-0.18419939361494761:0.13163119347245189] [-0.14151603611654981:0.21897134455115841] [-0.12552933808194969:0.1929925696799186] [-0.0510221454268492:0.095858284184001399] [-0.038955755015636397:0.3599313568699164] [-0.099360245708432701:0.1566675042281615] [-0.087029984038902497:0.2360969160777697] [-0.087029984038902497:0.2360969160777697] [-1.2500541037359785:0.17257176717861519] [-0.17279281230224811:0.1369992814260737] [-16.931487568882972:13.330834777604377] [-7.1154311466761069:3.700278993155055] [-0.094188830271203797:0.30807280886260902] [-0.3385913413003645:1.7624043221143233] [-0.5786205765427882:1.4208631982495223] [-0.57863739710791862:1.420846459701304] [-0.078695082494723595:0.30020001162488918] [-0.077453184414917303:0.3015205347688551] [-0.1080880201483245:0.2581046894185397] [-11.435418714802772:0.93447244095351079] [-0.38040909376938309:0] [-0.14290578071942281:0.26134770963592951] [-0.59531866177832193:1.5635127373778517] [-0.052952803777682897:3.2321372055325117] [-0.094280311020990798:15.791451669822072] [-0.094279979044031598:14.959192146734969] [-0.078621200219171405:1.4789597401387036] [-0.075790650163479703:1.799644373058241] [-0.097936290701893997:1.1780931180019285] [-0.082789016684209807:1.5657136322633147] [-0.1560829667496261:0.88246331253541643] [-0.097958087705883101:1.1774556311216611] [-0.059203438946763103:0.21257270171670031] [-0.078529756363921704:1.0837784063338911] [-0.081566928743899605:1.6792405433158617] [-0.076157203276137897:0.96510395090334822] [-0.1060281479319386:0.092092809248653901] [-0.078557065045905095:1.0832339085186748] [-1.5986818662903901:17.982907308170581] [-1.9098243411820812:23.017811011975823] [-0.1342393980164393:0.49779715163314081] [-0.073696041617697397:0.17472438801388609] [-0.094962019516896201:10.351483262522386] [-0.094861847001883007:10.461914976149124] [-0.079679521354009603:1.8701802678783257] [-0.066089250218661397:2.3434145463722889] [-0.071741537924719906:0.25877842040470461] [-0.039943419124265002:0.29404256921379679] [-0.2451656531113551:25.553405958038425] [-0.1159543056211963:0.3447953982434423] [-0.1311399896107526:0.036539458746621803] [-0.25256740674778988:0] [-0.079439602186344202:0.76767810215140386] [-0.14279727329981259:0.12047437210513789] [-0.071748127358697303:1.9911450798644881] [-0.065342415164189094:0.24907580723456749] [-0.083192014912267201:2.0049742945481732] [-0.16303274617839941:0.72799211462710489] [-0.084098331819673702:0.22773198161029959] [-0.085507631726640707:0.031018472435836698] [-0.078886243320489394:0.082763922965902903] [-0.090377813003014798:0.079274815145998601] [-0.10008253135249399:0.12945035531744559] [-0.26672192268336159:25.52997205596105] [-0.085223792926057196:0.6281663846180795] [-0.084350292648425806:0.89999766169102702] [-0.1096662116974685:1.2007569645051528] [-0.075009894497537796:0.7572064936570555] [-0.072028357647035302:2.2368945138738976] [-0.077568667586699405:0.14664870941118949] [-0.1042119254218396:2.3529441326944012] [-0.47649719835537663:6.9225660510112539e-17] [-0.3104422112458825:0] [-0.10120918061749209:0.3119391873806539] [-0.1108616250233138:0.33049159881251328] [-0.23188407729619731:6.3260600230201119e-17] [-0.3086253740440183:1.3296408154178221] [-0.082854710385047201:1.4567036155904838] [-0.093097361148917396:0.50316613333480287] [-0.086973642650755606:0.30875415005370588] [-0.098905523081514096:0.81107078067899308] [-0.061973931856936497:0.1283883613002551] [-0.091159338402116805:0.076146979631077499] [-0.068762718771819303:0.112306279480655] [-0.086956571042875602:0.2005112151242649] [-0.053349495825345303:0.078590279265102203] [-0.089063847246032099:0.1926766547144147] [-0.097668333559133597:1.8187655785512955] [-0.1197803830719245:22.20903357544919] [-0.092105920696546606:0.61624332347865662] [-0.090860806176232406:0] [-0.39617604389052091:3.5679092681791289] [-0.14751000580544199:1.3948983868455469] [-0.066180570058286495:1.1279229650215166] [-0.097309750547817903:0.90950556889800516] [-0.41583540764889071:0.017534699838385501] [-0.149276592144065:1.3281163887534693] [-0.148511673355644:0.1153031322071254] [-0.13348359006706989:0.86446193506203117] [-0.089538889850013598:2.5587815286850795] [-0.14996337849828789:5.9037268223945496] [-0.088439417621931998:0.45808851738716588] [-0.078210635541863097:0.47500301482856988] [-0.066872848753428402:1.97447777167242] [-0.49068433572779357:0.16600163810071961] [-2.1706092543107083:2.3447210777484084] [-0.058179094536065998:0.095553615010239595] [-0.44819850181087839:0.17824801753244909] [-0.44819773029909937:0.17824879317415421] [-0.050735214374276603:1.8142059143054745] [-0.060026014108950601:0.1003689446072365] [-0.0893595192215903:0.4010310211661024] [-0.058285316197502803:0.098924731606054403] [-0.045665585015433899:0.2074258914716175] [-0.15363283885813411:4.851849256680941] [-0.069826921797169497:5.4758685915023424] [-0.049930415226773099:1.7623153912788392] [-0.051219105348187702:1.8119107318821384] [-0.092804137323664104:0.47833337873202741] [-0.21120117158650289:18.068393094910256] [-0.33055937961195792:4.0508486904223782] [-0.036803785064833103:0.88347774304513826] [-0.037049015330963803:0.88264714433827096] [-0.051060778887946599:1.8138959150099456] [-0.051074024058496002:1.8135375962291216] [-0.0512191053944797:1.8119107318392051] [-0.016676606155158102:0.075140555260694297] [-0.048096874316256297:1.4314302639185676] [-0.047702513175704502:1.4327301601593896] [-0.047856380010423402:0.90414027142119657] [-0.044742754877893497:1.3109296070857961] [-0.45229477339415208:0.16503645862524469] [-0.16294350767741159:0.50427433302606384] [-0.8297650174023099:0.62367694224874504] [-0.32359830466598249:0.43719671722493419] [-0.49759967535926308:2.7131393586882564] [-0.54241730981718961:1.0574050453638617] [-0.1385725806464824:0.31923569275282221] [-0.97382298034073445:0.95022607575262918] [-0.51171570663542931:0] [-0.91346092707483695:4.8877540145810618] [-0.35166044132235857:0.0605369961690439] [-0.068798359866506703:0.4238420204532114] [-0.0440600415958858:0.18631431627240039] [-0.056407710975789803:0.51813812969357209] [-0.089186885345161102:1.3594957004438093] [-0.086676154099796801:0.087736754974686304] [-0.083965280460172001:0.090438688856905106] [-0.22432256551714011:0.31798290542550589] [-0.073202229131277302:0.93843305715408576] [-0.0567995572094653:0.34720448911129209] [-0.088175308057320698:0.36046147406304019] [-0.0767273644969131:0.51460374907939044] [-0.077508004133716002:0.52586867000361881] [-0.031739684459091602:-3.5939247288839289e-18] [-0.14428364681068589:26.629003967318496] [-0.0530755100271154:33.196836317832883] [-0.034482660039369999:-7.1878909338735527e-18] [-0.81012149281817392:0.83821490240795693] [-1.1598137452847996:0.1042135627043131] [-0.10755186089211211:1.4016480929557094] [-0.48934456799501208:-2.3777253670778449e-17] [-0.47736290649759:0] [0:0.44230641703958867] [-26.274862852938075:20.653108594545351] [-0.1163605428372381:1.7320666641702649] [-0.090512857290489801:0.47849915450332992] [-0.073145286281772803:0.58087141265057585] [-0.22553210529928711:0.051715613370948703] [-0.17026078626846819:0.44777430264330459] [-0.7015405117902096:9.6403341755053737e-17] [-0.13799171959821829:0.51689995648494402] [-8.5844782774150915e-18:0.062240298597809801] [-0.1098911952044177:0.46200942049383897] [-0.076918102164530905:5.2190478402875611] [-0.3540981036798212:-6.3744003136570761e-17] [-0.049141563579305797:0.200819573359832] [-0.90273829568716601:0.0345139338911764] [-0.23974243481929261:0.085743793179179698] [-0.12350577165958961:0.64159921423143673] [-0.092574599687186301:1.0421416472066043] [-0.1098621959029826:1.6220537862214812] [-0.73085545527360984:1.6280103483737085] [-1.0055034389588036:0.0846462956319841] [-0.1157551053575125:0.081964345238539002] [-0.10317819174293889:0.083491395118663103] [-1.2121693116753482:11.278334471985517] [-0.4687523641048848:-7.1133120783329821e-17] [-0.1846716677754833:0.13121544105125529] [-0.84316096465118828:0.65001115568340972] [-0.1836979351114954:1.3261904174932062] [-0.1894947110074684:1.3206602445440383] [-0.065605246318646698:0.15744303132429949] [-0.20926272097474999:0.26425079101149618] [-0.079972205724901102:0.0043160757169648] [-0.16328579373733471:1.7761801153171988] [-0.30917133937246383:5.756542367933597] [-0.17747873440405229:3.6384662159684784] [-0.1275880833727685:0.1968111403142454] [-0.4300298836999335:5.9675239090760401] [-0.15578866998166249:0.66544258473499662] [-0.19557525029000611:2.0469753050559971] [-0.2045988828892826:2.0384030999768128] [-0.30122710263435271:0.57012552164392971] [-0.72618402908139501:0.18294739582315511] [-0.81613482451422159:15.660240177186155] [-0.59674000974715558:6.436478749626839] [-0.79269863732620804:0.052604778963009698] [-0.1092181458169265:1.2468727489399178] [-0.34904794291288932:0.66141811721167243] [-0.27713298593220032:1.6805402406467478] [-0.50478673343483538:30.45168931191256] [-0.19210208244407731:0.17909261572583041] [-0.25491402194998097:1.7702410866193583] [-0.4330933023787179:39.119559681533843] [-0.188158967654699:3.7726047332109371] [-0.20125121409989841:0.88663738684330817] [-0.5260587452182548:10.122832270541576] [-0.1406486819987682:8.8646397399077639] [-0.13352622108256909:0.45637347875926398] [-0.32748475961319012:11.04649082613197] [-0.1922996921003568:1.1508195035410491] [-0.16781728928469461:1.0689567236693958] [-0.1210595926676714:1.7867402445334395] [-0.71867552755166597:4.9825510261642449] [-1.3377746870576823:0.2362009116494756] [-19.495319984799742:0.60835797816795867] [-1.7606481777065288:0.36752186899748851] [-0.1109958184683936:0.2353278119531873] [-21.080698215506182:1.7079054849020032] [-0.67804146702204882:6.9109014002939269] [-0.70949498419442569:0.53102906020560303] [6.9788919527130241e-17:0.51711038801254927] [-0.15724107529768419:2.9801892777485297] [-0.19610058418983009:1.7549404051712048] [-0.26582790280751029:3.2483687799467144e-17] [-0.73073037779953864:32.337192018703341] [-0.34131643123680011:1.9544021159835532] [-18.46625964788181:0.77604841972246541] [-12.010007184606469:10.791180548735582] [-11.952229853324884:10.776272362091555] [-0.13373450339781731:1.3116513785252877] [-0.85333074863215574:7.4764751574796966] [-0.4530259259646286:0] [-0.45014836506463829:-5.4985464683167007e-17] [-6.8277147488362422:1.1846320511125019] [-7.799957528354903:10.112207587109634] [-17.293928575927467:2.2537645981155858] [-20.085571091726329:0.71307401368637457] [-0.4528928612243403:32.681112697643094] [-0.67524231144668179:0.034814004750882102] [-0.78373332189025691:1.0811489596544599e-16] [-0.3993310795647157:0.25252497990470002] [-1.0626241388468438:1.5534519794642263e-16] [-0.37836614094947518:0.26731826247737028] [-0.1768224690015931:0.78201252642220209] [-0.21751774585089351:0.94474966921490922] none [-18.152041454189909:0.10135387400641831] [-57.848398131515175:2.2765016578725832] none none [-0.43313448082316819:0] [-0.39720844478665418:0.62573304893412884] [-0.74821160443139922:2.0722513802867635] [-0.87253572474132512:1.1658477292483179e-16] none [-5.7214450681876343:1.2011312741905976e-16] [-0.55738799412907647:0.3595059557796525] [-1.0765593385418264:6.2622005259495719] [-0.34802116205713701:0.35828162691414511] none [-1.2732973023274148:11.850719743050718] [-1.3492085117685066:1.2884187289695071e-16] [-1.0602508898307923:-1.6916734763101595e-16] [-0.50017951544000394:0] [-0.20517181383648631:0] [0:0.61031314026354455] [-0.29646832728969458:0.039874947637108298] [-2.2694187561748715:4.106107456960804] none [-1.1880432729741446:11.552341212595042] [-8.9930101958925199:1.0074980092270236] none none [-0.73358951848246179:13.786902491122998] none none none none none none none none none none none none none none none none none none none none none none none none none none
tree_sizes=3345 3421 3415 3325 3208 3231 3429 3228 3220 3327 3429 3430 3439 3441

Tree=0
num_leaves=31
num_cat=0
split_feature=140 140 10 188 223 18 5 119 206 35 60 45 45 1 166 136 96 100 217 113 49 4 63 29 139 61 278 77 15 0
split_gain=29.9255 27.3733 16.2246 16.4254 13.2299 19.573 18.7057 11.2799 10.8045 10.0638 9.98416 9.90252 7.76163 7.24114 6.99166 8.15777 6.42493 11.9144 6.15266 5.82565 4.3072 4.00106 4.88335 5.84305 5.54273 3.80646 2.57182 1.86924 0.170825 7.10543e-15
threshold=0.88175027795546346 1.0074345166093583 -0.032106644741308941 -0.071004282489361137 -0.074922411241923836 -0.011550683475306698 -0.061741927775102894 -0.080474597279057328 -0.12287633022817489 -0.057136851681054444 -0.085580819374104736 0.038462052852009355 0.039932646463991812 53.500000000000007 -0.0017853297713450998 -0.088138207366843233 -0.090296917498291884 -0.084247773389599934 0.0044557574333211015 -0.061319134033504148 -0.0061322399616072993 0.040916626594324608 -0.077181168010335741 0.096600925287258263 0.0093029480443527525 -0.078572353043492291 -0.44950761620403262 -0.093727357916167778 0.052496373685014357 6.5000000000000009
decision_type=2 2 2 2 2 2 2 2 2 2 2 2 2 2 2 2 2 2 2 2 2 2 2 2 2 2 2 2 2 2
left_child=2 7 3 10 6 16 12 -2 -7 -3 -1 -11 -4 19 -8 -16 17 -6 -10 -5 -19 -18 23 -23 -24 -26 -27 -9 -28 -30
right_child=1 9 4 13 5 8 14 27 18 11 -12 -13 -14 -15 15 -17 21 20 -20 -21 -22 22 24 -25 25 26 28 -29 29 -31
leaf_value=0.44689521800832577 0.41728552097567395 0.59878911837063054 0.42574543441357443 0.35524615576440344 0.36229608362932059 0.531494352387331 0.60340361660948538 0.21424759846606134 0.44497251040880292 0.51880448223048015 0.25800577142071929 0.32961005443743213 0.25453290055130195 0.56033496638017366 0.5566726661906064 0.37538880680702369 0.4834266623992598 0.61801619436585908 0.2911559024469752 0.51034456879257972 0.50366568976265824 0.43581675993488456 0.48919478519782839 0.58436881137420926 0.5385442802522481 0.55264413598208229 0.61609348676633602 0.29481820263654251 0.63724327036108752 0.63724327036108752
leaf_weight=4.7281807661056519 5.9102259576320657 5.2009988427162179 5.673816919326784 4.9645898044109371 4.7281807661056545 6.6194530725479135 5.9102259576320639 6.8558621108531961 5.200998842716217 5.9102259576320648 6.855862110853197 5.200998842716217 4.9645898044109344 7.8014982640743247 4.9645898044109336 4.9645898044109336 5.2009988427162162 5.2009988427162179 5.200998842716217 4.728180766105651 8.983543455600735 4.9645898044109327 4.728180766105651 5.6738169193267822 7.0922711491584733 4.7281807661056545 4.7281807661056581 4.9645898044109336 11.820451915264131 8.0379073023796064
leaf_count=20 25 22 24 21 20 28 25 29 22 25 29 22 21 33 21 21 22 22 22 20 38 21 20 24 30 20 20 21 50 34
internal_value=0.475058 0.390496 0.494449 0.427465 0.510763 0.528534 0.448406 0.304487 0.43162 0.483984 0.335104 0.430245 0.345846 0.488623 0.517289 0.466031 0.550272 0.49977 0.368064 0.430904 0.545594 0.567037 0.575436 0.515045 0.591054 0.604283 0.620187 0.248087 0.633176 0.637243
internal_weight=182.508 34.0429 148.465 29.0783 119.387 92.9088 26.4778 17.7307 17.0215 16.3122 11.584 11.1112 10.6384 17.4943 15.8394 9.92918 75.8873 18.9127 10.402 9.69277 14.1845 56.9746 51.7736 10.6384 41.1352 36.407 29.3147 11.8205 24.5865 19.8584
internal_count=772 144 628 123 505 393 112 75 72 69 49 47 45 74 67 42 321 80 44 41 60 241 219 45 174 154 124 50 104 84
is_linear=0
shrinkage=1


Tree=1
num_leaves=31
num_cat=0
split_feature=140 134 10 187 140 156 223 4 227 18 175 84 250 43 209 101 61 90 62 140 10 95 25 139 10 247 45 112 75 230
split_gain=23.9479 21.4722 13.2024 13.1045 11.0011 11.967 10.0839 12.6795 10.5342 10.5683 9.23378 8.94374 8.47692 8.21884 7.01269 6.77993 6.73879 5.937 5.8048 9.30384 5.1581 4.56757 3.83477 3.61007 3.4847 6.87794 1.64437 1.04987 0.760807 0.150343
threshold=0.88175027795546346 -0.089263908240992937 -0.032106644741308941 -0.070266838534483136 -2.0634993569726525 0.0015319286892833003 -0.074917465446136533 0.059560222989793757 -0.04282400694519254 -0.011796806165071947 -0.026270996123817048 -1.0000000180025095e-35 -0.14470346153229061 -0.019059464542024698 -0.07444405751400604 -0.10930957432265183 -0.07803711268915188 -0.061605450706879346 -0.072339099474009932 1.1847677969562793 -0.031568372085537595 -0.076991384269540386 0.070486861464294462 0.011349151649913052 -0.031250816515310344 -0.18797728753159457 0.040241425181415512 -0.067975425597374475 -0.07306710992035069 -0.16243313303195669
decision_type=2 2 2 2 2 2 2 2 2 2 2 2 2 2 2 2 2 2 2 2 2 2 2 2 2 2 2 2 2 2
left_child=2 10 3 11 5 -4 7 14 9 13 -2 -1 -5 16 22 -9 -8 23 19 -3 -10 -14 -6 -15 28 -26 -12 -27 -22 -25
right_child=1 18 4 12 6 -7 8 15 20 -11 26 -13 21 17 -16 -17 -18 -19 -20 -21 24 -23 -24 29 25 27 -28 -29 -30 -31
leaf_value=-0.21838173246259443 -0.03748086846414931 -0.035855488884559104 0.027326206087382277 -0.083030701471638824 0.031885102851113671 -0.17681975320503174 -0.11479158741843032 -0.17195466879762789 0.019315386071633606 -0.08203070289210225 -0.15574130359577329 -0.051470131059361636 0.14000131627836884 0.056973098343484407 -0.046290082968797511 -0.011641860622653133 0.054593653238123145 -0.013983748892799503 -0.085291167822850622 0.13978121501086985 0.11397467699647204 0.0068787714928171045 0.15736031757209407 0.15819617794448998 -0.019867604916012638 0.091347706159609104 -0.23069789295498142 0.1579631104806597 0.15585624147105259 0.1337376788049299
leaf_weight=5.1070394963026038 4.8216925263404873 6.9246488660573977 6.7809993326663953 5.2391631305217734 4.6731418967246992 4.9805091619491577 4.7043511420488358 5.5504653006792068 7.1926267594099036 7.6338495314121237 4.8576559871435148 8.643862798810007 5.1348323076963416 7.8940698653459576 5.2221397608518627 5.0277042984962446 4.6905417293310148 5.1566076725721386 5.2166086733341208 5.3432201445102692 6.739531293511388 5.1749260276556006 5.0872267335653305 5.5621437281370172 4.949597716331481 4.6024240106344214 7.3627122342586517 4.8684194236993816 12.169171079993248 4.5847027450799915
leaf_count=21 20 29 29 22 20 21 20 23 31 32 20 36 22 34 22 21 20 22 22 23 29 22 22 24 21 20 30 21 53 20
internal_value=0.000175783 -0.0747876 0.0177386 -0.0423455 0.0326488 -0.0591211 0.0428018 -0.0119387 0.0601298 0.0238785 -0.154666 -0.113461 0.0205461 0.0486847 0.0472416 -0.0957595 -0.0302235 0.0806422 0.00306926 0.0406424 0.0961167 0.0731812 0.0972844 0.107689 0.112691 0.0756645 -0.200902 0.125591 0.140929 0.147145
internal_weight=181.897 34.5265 147.37 29.2998 118.07 11.7615 106.309 25.5607 80.748 40.2263 17.0421 13.7509 15.5489 32.5924 14.9825 10.5782 9.39489 23.1975 17.4845 12.2679 40.5218 10.3098 9.76037 18.0409 33.3291 14.4204 12.2204 9.47084 18.9087 10.1468
internal_count=772 144 628 123 505 50 455 108 347 172 70 57 66 140 64 44 40 100 74 52 175 44 42 78 144 62 50 41 82 44
is_linear=0
shrinkage=0.1


Tree=2
num_leaves=31
num_cat=0
split_feature=140 140 10 141 18 15 195 220 35 96 113 121 33 10 140 173 193 137 140 140 200 10 263 4 175 77 0 57 243 35
split_gain=19.3633 17.4262 10.7921 10.7706 9.27663 9.73627 8.79982 8.10963 7.84756 7.16815 7.1515 6.84779 12.0571 6.46718 6.42474 6.13747 5.8176 5.89099 4.95067 4.58893 4.39545 4.22663 4.03306 3.97528 2.45406 2.20699 2.135 0.195175 0.0071762 0.00411214
threshold=0.88175027795546346 1.0074345166093583 -0.032106644741308941 -0.054575694163343048 -0.01204044819201215 0.05559007565285886 -0.10746373141962613 0.082556413869323955 -0.057136851681054444 -0.09027854244709059 -0.073514499795537078 -0.088144395618391227 0.026585663589217254 -0.031209528410590347 0.20416026830067383 -0.039600135117905791 -0.016468784658425398 -0.077793845672134335 -2.104407042675255 0.20416026830067383 -0.1161502032274699 -0.034682149788841744 -0.11019408574942878 0.059389668057709254 -0.026050994142517096 -0.093727357916167778 5.5000000000000009 0.048238269838976756 -0.08551737280278289 -0.055532938696406443
decision_type=2 2 2 2 2 2 2 2 2 2 2 2 2 2 2 2 2 2 2 2 2 2 2 2 2 2 2 2 2 2
left_child=2 7 3 14 6 9 -4 25 -3 -6 -10 12 13 20 -1 -5 23 -18 -19 -20 -8 -17 -13 -11 -22 -2 27 -24 -26 -29
right_child=1 8 4 15 5 -7 11 -9 10 16 -12 22 -14 -15 -16 21 17 18 19 -21 24 -23 26 -25 28 -27 -28 29 -30 -31
leaf_value=-0.18643363364962293 -0.21122253340950647 0.11349534434970501 -0.064806285817610304 -0.055091657887208025 -0.072370137886414138 -0.12500260091193349 0.0084421644456686897 -0.029469152376777819 -0.10535680085577002 0.016296208107683657 0.056477334827864913 0.029370732533333839 -0.079858523301550188 -0.013564820597979291 -0.034994455306635704 -0.0071082195369162465 -0.081711557217884354 -0.043609584799075549 0.11771461474931133 -0.0077260572428232881 0.07659823519374008 0.12286652258288373 0.12828800280348551 0.13150665044354093 0.15109542111501278 -0.12856056426280088 0.067452083062653975 0.15503717768914516 0.15673609012776687 0.15101612392522684
leaf_weight=5.9241282641887683 7.4463732242584237 4.9738729596138009 5.6426754444837561 8.0832469165325183 8.0054158568382245 5.7345058768987647 4.614947289228442 5.3636872321367255 6.5052270591259012 4.8783291578292793 4.705922231078147 5.3528867810964611 7.0066667497158042 7.4579554796218899 5.3146203756332397 4.7081502526998538 6.0962560772895769 5.8566220700740805 7.3926735222339754 4.8162722736597061 7.5136390179395738 5.3392426222562754 4.4544149786233929 7.7572635263204575 4.4348593503236815 5.7040662616491327 4.5435400009155265 5.9256178587675121 4.5895906984805963 4.4555343985557512
leaf_count=24 30 22 24 34 34 24 20 22 27 21 20 23 30 32 22 20 26 25 32 21 33 23 20 34 20 23 20 26 20 20
internal_value=0.000302551 -0.0668404 0.0162711 -0.0379038 0.029925 -0.00231662 0.0546159 -0.1331 0.00895392 0.0133865 -0.0374263 0.0657818 0.0377123 0.0665048 -0.114821 0.00977506 0.0320432 0.0032893 0.031973 0.0682299 0.094735 0.0619611 0.106206 0.0870264 0.118815 -0.175368 0.127429 0.145798 0.153964 0.153311
internal_weight=180.598 34.6991 145.899 29.3694 116.53 50.5373 65.9923 18.5141 16.185 44.8028 11.2111 60.3497 35.6177 28.611 11.2387 18.1306 36.7974 24.1618 18.0656 12.2089 21.153 10.0474 24.732 12.6356 16.5381 13.1504 19.3791 14.8356 9.02445 10.3812
internal_count=772 144 628 123 505 217 288 75 69 193 47 264 155 125 46 77 159 104 78 53 93 43 109 55 73 53 86 66 40 46
is_linear=0
shrinkage=0.1


Tree=3
num_leaves=30
num_cat=0
split_feature=140 134 10 128 136 125 95 18 190 168 175 46 263 20 249 161 223 34 22 57 142 173 10 168 10 29 59 45 119
split_gain=15.7764 14.4632 9.19651 10.9757 9.48447 7.60719 7.10155 7.03407 7.5241 12.8904 6.99669 5.46896 6.15927 5.10254 6.58813 5.34087 6.55097 4.81525 4.77496 6.28039 4.63767 4.58541 4.03318 3.8379 3.78134 3.73651 1.86254 1.11818 0.0185624
threshold=0.88175027795546346 -0.089263908240992937 -0.031744111871501994 -0.063969657582027398 -0.088397250322420975 -0.089239106303309182 -0.078836190917019086 -0.011458855759825649 -0.062338443045811397 0.05794378344411346 -0.026270996123817048 0.023083790986333654 -0.10855849874845308 -0.033158708642920143 -0.15719046072462348 0.058701758075232251 -0.074759371158050786 -0.05903312884277629 0.05520634121689786 0.034569284210582911 0.015238711428901252 1.0000000180025095e-35 -0.031024705508887144 0.058055966114759806 -0.031407755743042547 0.096486829230558166 -0.071238195672900989 0.040241425181415512 -0.086792013719801539
decision_type=2 2 2 2 2 2 2 2 2 2 2 2 2 2 2 2 2 2 2 2 2 2 2 2 2 2 2 2 2
left_child=2 10 3 5 6 -1 -4 8 9 -6 -2 12 -5 17 -15 23 -17 -10 19 -3 -9 -14 -18 24 -16 -7 28 -12 -19
right_child=1 18 4 11 7 25 -8 20 13 -11 27 -13 21 14 15 16 22 26 -20 -21 -22 -23 -24 -25 -26 -27 -28 -29 -30
leaf_value=-0.0074603754881187928 -0.023679372944927616 -0.11497678271542217 -0.13673803537493659 0.081365951296172828 0.089445099722097132 -0.19818238575181724 0.0096683106734843996 -0.082622116716637967 0.030348225833541388 -0.11197786664193539 -0.12808463108936055 0.10655474039274931 -0.12744412515543502 0.14815013978844027 0.08454674797980731 -0.10285889551865618 0.080287741214587566 0.15697516293180258 0.070682775919013577 0.03846200585265095 0.029416481813588104 0.0063124080370817737 -0.035715251107853459 0.14810927968485749 -0.028435136141641167 -0.076855206750272576 0.081191109426475949 -0.18947700010631452 0.1490522949268662
leaf_weight=7.2846196889877346 4.8825053274631527 5.2634431868791598 5.3759930729866019 5.0754898488521585 6.0575032085180265 5.4117779582738859 8.6340299397706968 6.7181016802787772 6.4789734333753612 6.6820645928382874 4.9292540550231916 5.5829217135906211 4.6080485731363297 5.4518882036209098 7.6850053071975655 5.2160614281892803 7.0453805476427087 4.8104802370071456 6.6622634828090659 5.4088305085897446 8.2091186791658384 5.7751307189464569 5.2161467820405933 4.5666469186544409 4.820375591516509 4.7806645929813385 5.2658432871103189 7.4516662210226059 7.6753918528556815
leaf_count=31 20 22 22 22 27 22 38 28 29 28 20 24 19 25 35 22 32 21 29 23 35 25 23 21 21 20 23 30 35
internal_value=0.000384869 -0.0602674 0.0149142 -0.0269282 0.0301322 -0.0854997 -0.0465114 0.0418165 0.054 -0.0162038 -0.125056 0.021721 -0.00891679 0.0679239 0.0459877 0.0298666 -0.00899189 0.104138 0.00425555 -0.0372122 -0.0210073 -0.0530487 0.0309392 0.0696483 0.0409963 -0.141275 0.131069 -0.165035 0.152105
internal_weight=179.026 34.598 144.428 38.5187 105.909 17.4771 14.01 91.899 76.9718 12.7396 17.2634 21.0416 15.4587 64.2322 40.0015 34.5496 17.4776 24.2307 17.3345 10.6723 14.9272 10.3832 12.2615 17.072 12.5054 10.1924 17.7517 12.3809 12.4859
internal_count=772 144 628 163 465 73 60 405 342 55 70 90 66 287 179 154 77 108 74 45 63 44 55 77 56 42 79 50 56
is_linear=0
shrinkage=0.1


Tree=4
num_leaves=29
num_cat=0
split_feature=57 150 18 22 0 4 107 2 214 53 254 46 5 26 135 56 200 18 44 112 270 103 20 170 1 142 84 46
split_gain=13.2686 14.2123 11.3186 10.5057 9.35375 7.69185 7.48715 6.73491 6.33897 6.38211 6.05019 5.65731 6.16787 9.10795 8.00807 6.89571 5.43769 4.63966 5.59517 4.63361 4.55071 3.99085 3.29326 2.85325 1.87949 1.77725 1.05383 0.0403927
threshold=0.050243269247161659 -0.069772855241380591 -0.012027329410409848 0.055474225895253207 7.5000000000000009 0.058238633086055806 -0.30959735295742019 -0.022018921215743798 -0.12337139914533879 -0.10712983056495524 -0.12324888010804198 0.020956161570303652 -0.06126720283466134 -0.0012013289325983497 -0.14797624103760246 0.14494457825109708 -0.11313291071126544 -0.012021104280004547 0.034163813704699959 -0.080765198334676436 -0.26185705545442528 -0.071855033691823084 -0.031399435354265641 -0.097064174200584927 88.500000000000014 0.0089713197063967017 -0.11314703058468854 0.022787216011462753
decision_type=2 2 2 2 2 2 2 2 2 2 2 2 2 2 2 2 2 2 2 2 2 2 2 2 2 2 2 2
left_child=1 2 4 5 19 7 21 -3 9 -8 -9 -10 13 16 15 -15 -13 18 25 20 -1 -7 -12 -16 -14 -2 -25 -28
right_child=17 3 -4 -5 -6 6 8 10 11 -11 22 12 24 14 23 -17 -18 -19 -20 -21 -22 -23 -24 26 -26 -27 27 -29
leaf_value=-0.046546896385963786 0.080958271158919737 -0.13912022325448806 -0.17764453022794013 -0.11263507464393259 0.080351880844308346 0.013410024483301815 0.064264386158111989 -0.1084961363547506 -0.046106075027208926 -0.080226459371511377 -0.02715474864015717 -0.098043182175346244 0.1536963007209009 -0.063495531327774218 0.040905119248648598 0.078440336658957791 0.03807916626195279 -0.0041290724657597885 0.011310320573840077 0.0010745345460023922 -0.17804128399653532 -0.11018468696714774 0.070918511160794936 0.09652686907154906 0.076889419166029871 0.14931208173036456 0.15961008321506678 0.14624000423546554
leaf_weight=5.1874855309724852 7.054920554161078 5.2693985402584103 7.8292121887207022 7.3249342739582053 5.1476824581623069 4.7842405289411545 4.8279868662357321 4.7245414853096053 5.6740985959768286 8.3332557082176191 6.7304901629686391 6.2793490886688232 7.1426938325166756 6.5849523246288211 4.4246166348457328 7.1281894445419312 5.5095026940107257 8.2494217157363874 7.2777195274829856 5.343164116144183 5.3422710299491856 5.7555000036954862 6.9693782180547643 5.1010067760944358 5.7513024806976318 8.2544327080249769 4.8162469565868467 4.2567251920700073
leaf_count=22 32 22 32 31 23 21 21 20 25 36 29 27 32 29 20 32 24 35 32 23 22 24 31 23 25 38 21 20
internal_value=0.000443315 -0.0121267 -0.0750111 0.00332796 -0.0367848 0.0110455 0.0248917 -0.0394272 0.0358684 -0.0272224 -0.0109149 0.0491183 0.0585984 0.0408106 0.0682607 0.0102838 -0.0344266 0.0600552 0.0834971 -0.0747729 -0.113261 -0.0540821 0.0227369 0.111008 0.119437 0.117813 0.132892 0.153337
internal_weight=177.075 146.238 28.8498 117.388 21.0206 110.063 86.3697 23.6938 75.8299 13.1612 18.4244 62.6687 56.9946 44.1006 32.3117 13.7131 11.7889 30.8365 22.5871 15.8729 10.5298 10.5397 13.6999 18.5986 12.894 15.3094 14.174 9.07297
internal_count=772 635 122 513 90 482 380 102 335 57 80 278 253 196 145 61 51 137 102 67 44 45 60 84 57 70 64 41
is_linear=0
shrinkage=0.1


Tree=5
num_leaves=29
num_cat=0
split_feature=140 45 223 18 206 22 119 10 142 105 82 26 116 140 57 39 119 12 45 167 34 151 10 112 191 175 270 105
split_gain=11.6367 9.45319 8.38834 8.32283 7.91367 7.51212 7.41043 7.00156 9.04145 8.28958 6.49657 6.34041 5.84399 5.30588 6.75597 8.46802 5.2594 4.47316 4.46206 4.26758 4.14267 4.1055 3.73162 4.42308 2.84997 1.36955 0.756841 0.0238783
threshold=0.79868253422758217 0.039306333877688955 -0.074917465446136533 -0.011550683475306698 -0.12287633022817489 0.055457710087462156 -0.086945573157562642 -0.031593180711207994 0.015478080950903703 -0.079634832468754593 -0.039922336500752088 -0.0016277081863468998 -0.061754880435948692 0.026964673465130904 0.049887196287031053 -0.017063810895253394 -0.085512320443288284 -0.0050436048550570487 0.040247742576473559 0.0049023190739235509 -0.058991553159670147 -0.039162157461911297 -0.031338504598502147 -0.082735930199823934 -0.044431727719156038 -0.024873182160387797 -0.2613963253513622 -0.096425365001729393
decision_type=2 2 2 2 2 2 2 2 2 2 2 2 2 2 2 2 2 2 2 2 2 2 2 2 2 2 2 2
left_child=2 12 5 6 -5 13 -4 8 17 -10 -3 -9 -2 20 15 -15 -14 -8 -12 -6 -1 -13 25 -24 -25 27 -20 -23
right_child=1 10 3 4 19 -7 7 11 9 -11 18 21 16 14 -16 -17 -18 -19 26 -21 -22 22 23 24 -26 -27 -28 -29
leaf_value=-0.12632445996886493 0.11156950308709163 0.0034676279966302844 -0.076760136273368029 0.050586184637303494 -0.031437794853242766 -0.11885623092712633 -0.0042336244424299304 -0.029839760721353858 -0.15811115587518085 0.022656930502941028 -0.063300055986718062 0.0061979871314617619 -0.09965708982759254 0.083034991724935669 0.13195727047836708 -0.10345286445372788 0.04047709492727352 0.10290782400962212 -0.1342608316680822 -0.15033995583625762 -0.00070647236658232708 0.14774186786750174 0.000987440492404724 0.033221975865428764 0.13360683425876738 0.089590162860370887 -0.19024730600076722 0.1392813838645251
leaf_weight=4.8128734529018402 4.4153842478990546 6.1016066819429389 4.9025850296020499 7.8271480798721322 7.8532134592533112 7.3487223684787741 7.0548164695501319 5.549216851592063 4.9821736365556717 5.1685100197792035 8.5918387621641212 6.0159242898225775 5.0312328189611426 4.7428181469440442 4.827193319797515 5.0037625283002853 5.7266405373811713 8.704812094569208 4.8105822354555166 4.9032745212316513 5.7758358418941516 6.714704826474188 7.1676173359155682 4.290225178003312 8.2987909018993378 7.268928349018096 4.8478043377399391 6.6294623613357544
leaf_count=20 20 26 21 34 33 30 31 26 21 23 36 27 21 21 22 21 25 39 20 20 25 31 32 20 39 35 20 33
internal_value=0.000498288 -0.047257 0.0143933 0.0283319 -0.0285713 -0.0299083 0.0424867 0.0499967 0.0075372 -0.0660679 -0.0858605 0.0711797 0.0146984 -0.00393103 0.0352105 -0.0127053 -0.0250607 0.0549458 -0.115726 -0.0771408 -0.0578035 0.0832649 0.0947495 0.0636942 0.0993966 0.124514 -0.162362 0.143539
internal_weight=175.368 39.5251 135.843 103.331 20.5836 32.5112 82.7478 77.8452 25.9103 10.1507 24.3518 51.9349 15.1733 25.1625 14.5738 9.74658 10.7579 15.7596 18.2502 12.7565 10.5887 46.3857 40.3697 19.7566 12.589 20.6131 9.65839 13.3442
internal_count=772 168 604 465 87 139 378 357 114 44 102 243 66 109 64 42 46 70 76 53 45 217 190 91 59 99 40 64
is_linear=0
shrinkage=0.1


Tree=6
num_leaves=31
num_cat=0
split_feature=57 89 18 5 192 4 2 264 214 13 8 17 75 114 154 117 2 125 53 10 223 172 140 157 29 18 27 116 139 36
split_gain=10.1113 11.0907 10.9213 7.46446 7.20203 6.42055 7.56437 6.19558 6.66385 8.69243 7.12667 6.78211 6.28778 6.26412 6.19708 5.68763 5.27399 5.05051 4.54889 4.96281 5.01808 4.47346 4.89217 7.0548 2.80794 2.66526 2.03004 0.787495 0.174665 0.0768465
threshold=0.050243269247161659 -0.071652408274425289 -0.012004012869934 -0.061788182168326246 -0.034451674781818944 0.058238633086055806 -0.021781284582852698 0.047628401554743051 -0.12337139914533879 0.017522697279813353 -0.066518958925782135 0.050808678395193457 -0.073102521607477641 -0.086853187418439531 -0.14279682098926019 0.073780329708919526 -0.021070270201292398 -0.089990271694254137 -0.10599196263823764 -0.031588506194847946 -0.074430063079086131 -0.13547811029086643 -2.104407042675255 0.0026802259672328503 0.096575819133390667 -0.01303757887649055 0.065036641296296216 -0.05832538760954744 0.011545293764898301 0.067926681009700104
decision_type=2 2 2 2 2 2 2 2 2 2 2 2 2 2 2 2 2 2 2 2 2 2 2 2 2 2 2 2 2 2
left_child=1 2 3 -1 -5 6 -3 8 10 11 13 12 -10 -7 -11 -8 -16 -9 19 -13 -21 -2 -23 27 28 -17 -19 29 -20 -24
right_child=21 5 -4 4 -6 7 15 17 9 14 -12 18 -14 -15 16 25 -18 26 24 20 -22 22 23 -25 -26 -27 -28 -29 -30 -31
leaf_value=-0.11801871511075841 -0.039915038780654409 -0.1223103955372469 -0.16651174463556917 -0.066933832338043286 0.070298449898491738 -0.086180129469951169 0.072749151037416193 -0.008844966236700889 0.068987475612384941 0.051669455806607825 -0.15087654406223205 -0.05776637974458454 -0.085532669741284761 0.068153468657066993 -0.13707263812102408 0.004885945107141982 -0.00076395410930315643 0.064434716569439346 0.15183477132796475 0.14221148111517401 -0.0046784336692338065 -0.0029576521922590315 0.14106949795651377 -0.0050617885693239736 0.052637047222232926 -0.1011739800953777 0.14784558645208057 0.099058089710725925 0.12458552192157485 0.15940932608201108
leaf_weight=6.576460182666783 4.3643008619546917 7.9199737012386349 7.7884702682495108 6.8976216912269637 8.5826538652181572 5.1495725512504569 6.1297987401485434 5.5253190994262722 4.4203692823648453 5.0026798397302654 5.1549136042594901 4.572749838232995 6.5145307034254056 5.3748483955860129 6.9308396130800256 4.5126554071903229 4.8073760569095585 5.6917441636323911 5.3847001194953936 4.6959223002195349 4.6077085286378816 6.7895351350307527 4.4632873684167915 5.0193163752555838 5.9952889531850824 4.9887788444757444 5.9870194941759109 4.4224119335412899 4.1771044731140137 4.6807746738195419
leaf_count=28 19 33 32 29 39 22 28 24 20 23 21 20 28 25 29 20 21 27 25 23 21 30 22 23 28 21 28 22 20 21
internal_value=0.00053937 -0.0104666 -0.0647124 -0.0287659 0.00915119 0.00379197 -0.0426918 0.0159568 0.00320063 0.0190547 -0.0545452 0.0441786 -0.0230688 -0.00736157 -0.041528 -0.00235096 -0.0812475 0.069927 0.0691618 0.0275364 0.0694629 0.0536046 0.069689 0.0962274 0.10629 -0.0508014 0.107195 0.133702 0.139931 0.150458
internal_weight=173.129 143.389 29.8452 22.0567 15.4803 113.544 23.5512 89.9927 72.7886 57.1093 15.6793 40.3684 10.9349 10.5244 16.7409 15.6312 11.7382 17.2041 29.4335 13.8764 9.30363 29.7396 25.3753 18.5858 15.5571 9.50143 11.6788 13.5665 9.5618 9.14406
internal_count=772 635 128 96 68 507 102 405 326 258 68 185 48 47 73 69 50 79 137 64 44 137 118 88 73 41 55 65 45 43
is_linear=0
shrinkage=0.1


Tree=7
num_leaves=29
num_cat=0
split_feature=140 60 117 172 5 120 140 170 10 115 223 128 263 133 20 67 36 49 78 180 61 13 23 167 55 43 223 174
split_gain=8.87382 8.01909 7.90742 8.11375 6.74796 9.11516 7.99936 7.25121 6.68669 8.01593 11.1693 7.33758 6.20498 5.9962 4.76935 5.49845 5.14263 4.70211 4.47868 4.4349 4.04893 3.92882 2.85741 2.02621 1.96143 0.5913 0.106392 0.00727331
threshold=0.79868253422758217 -0.023081985553287047 0.074990301055365124 -0.062187524778876048 -0.06178711480310909 -0.050922268239263539 -2.104407042675255 -0.10639809191799469 -0.031726584393812644 -0.09580923553504829 -0.073592524046856636 -0.063969657582027398 -0.11099020082363044 -0.13111258336103063 -0.032896600637939998 -0.059139210582034994 0.070959107640290606 -0.0061479045589684488 -0.094841092054277029 -0.063186691661726427 -0.078554299177978987 0.017518720496924305 -0.059148032788358097 0.008370572021152602 -0.25050289864126235 -0.020584512281214547 -0.074776586684549187 -1.0000000180025095e-35
decision_type=2 2 2 2 2 2 2 2 2 2 2 2 2 2 2 2 2 2 2 2 2 2 2 2 2 2 2 2
left_child=4 2 22 -4 5 13 -6 17 9 -9 -11 -12 -10 -1 15 -14 18 -8 -16 -19 -7 -5 -2 -15 -17 -26 -27 -28
right_child=1 -3 3 21 6 20 7 8 12 10 11 -13 14 23 16 24 -18 19 -20 -21 -22 -23 -24 -25 25 26 27 -29
leaf_value=0.0099836058756974082 -0.061464961054640457 0.064147980556322676 -0.097141980964261299 0.077778373272407192 -0.074233249905769683 -0.023230142874401654 0.035587837343236207 0.11309425733410078 -0.028636563063770056 -0.1542922334295308 -0.066524673926839792 0.091416934618755538 0.0055563195439937152 -0.075374077036739998 0.019080841371119053 0.059815488222138183 -0.044418229693037034 0.0041602051099923964 0.12881769325155218 -0.11664894969350376 0.10868413545024212 -0.040576045128990865 -0.16118887590664466 -0.16268934759700746 0.10052144946370367 0.15304974911413874 0.13951909693491515 0.13400124823207191
leaf_weight=5.0101207047700873 4.5575763136148453 6.0509068220853797 8.5054875761270505 7.1129740625619906 7.7165787369012824 4.5285066217184067 8.6236192137002963 4.7792856693267849 6.4623392969369879 5.2844680845737502 5.3420455902814901 6.5455507338046957 4.9960604757070568 4.9164790660142899 8.2249801903963089 4.3607947975397172 5.4878995716571799 5.6474901735782623 6.7890008687973067 6.5780409574508649 4.7857383638620377 4.6306857764720917 7.7746587395668012 5.7847035974264145 4.230070948600777 6.0297303050756499 3.9886507242918077 5.9560375958680849
leaf_count=22 20 27 36 32 33 21 39 23 28 22 23 30 23 21 38 21 25 25 34 28 23 20 33 24 21 28 20 32
internal_value=0.000583101 -0.0415731 -0.0612073 -0.0227614 0.0129145 -0.0338346 0.0238441 0.0314636 0.0453903 -0.00145077 -0.0333306 0.0204412 0.0635807 -0.0803031 0.0754844 0.101189 0.0384219 -0.0209568 0.0687015 -0.0608421 0.0445485 0.0311096 -0.124334 -0.122574 0.120638 0.133766 0.142569 0.136214
internal_weight=170.7 38.6323 32.5814 20.2491 132.068 25.0255 107.043 99.3261 78.4769 21.9514 17.1721 11.8876 56.5256 15.7113 50.0632 29.5613 20.5019 20.8492 15.014 12.2255 9.31424 11.7437 12.3322 10.7012 24.5653 20.2045 15.9744 9.94469
internal_count=772 168 141 88 604 111 493 460 368 98 75 53 270 67 242 145 97 92 72 53 44 52 53 45 122 101 80 52
is_linear=0
shrinkage=0.1


Tree=8
num_leaves=29
num_cat=0
split_feature=18 157 63 89 168 121 219 10 59 8 184 24 14 46 96 6 46 26 264 103 77 18 10 112 97 168 7 220
split_gain=7.77653 7.93107 7.56924 9.3385 7.64224 6.80819 6.71504 6.82497 6.02796 5.81392 7.31126 5.68302 5.56397 8.40063 6.8515 5.42718 5.32418 5.09133 4.43139 4.3486 4.05562 4.0001 3.72021 4.36595 2.69664 2.3462 1.40383 0.141349
threshold=-0.01204044819201215 0.0014644596206185002 -0.077089164351088743 -0.071655472515407645 0.057416630358759012 -1.0000000180025095e-35 0.070928718095598017 -0.033697611752773797 -0.090748330938162688 -0.066673621056743335 -0.072106694468435831 0.066720012547010515 0.069725058629200462 0.022957935087205804 -0.090125180379010891 0.060666675298849657 0.022776802304252403 -0.0012013289325983497 0.076066366831319107 -0.071240740682388934 -0.09495329770921164 -0.012004012869934 -0.03155090498068109 -0.082151838042716835 1.0000000180025095e-35 0.058030555748034403 -0.067505832247318778 0.079625199698115753
decision_type=2 2 2 2 2 2 2 2 2 2 2 2 2 2 2 2 2 2 2 2 2 2 2 2 2 2 2 2
left_child=1 20 18 8 22 26 7 -3 -4 16 25 -12 13 17 -14 -7 -9 -13 21 24 -1 -2 -5 -24 -19 -11 -6 -22
right_child=2 6 3 4 5 15 -8 9 -10 10 11 12 14 -15 -16 -17 -18 19 -20 -21 27 -23 23 -25 -26 -27 -28 -29
leaf_value=0.01863861429968762 0.044068285175239308 -0.10715868397784892 -0.037839756523080588 -0.12559595643508337 0.047509447989425399 0.044241246615992935 0.12338224937651415 0.016009529065609877 -0.17648356001106902 0.13326351714833554 0.08823969320810375 -0.039520837472155658 -0.16534266804554987 -0.080861871783118044 -0.00050308867424831165 -0.074448083463145451 -0.13039492665196892 0.13366199819450572 0.09220661335887817 -0.017765170334354628 0.12110581619944667 -0.064270358459720983 -0.097568357604802342 0.033149423067385733 0.040134649699536548 0.044880569109030127 0.12902761577794541 0.14738362183437578
leaf_weight=4.7091607451438895 7.5001715123653421 5.4211341738700858 5.4567141681909561 7.1770888566970852 4.1630835980176926 6.8512943685054788 4.7615010738372794 4.6982385665178281 7.3734466731548292 6.2470054328441531 6.8006383031606736 5.9377082288265184 4.5763730853796005 7.5654221624135962 5.6156961023807508 8.8021044880151731 5.2704302817583084 7.8699177205562556 7.0826974958181372 4.4302155077457579 3.8623497337102872 6.2463400065898904 5.067940205335618 5.1532128900289509 5.068074956536293 5.7847615480422974 4.2889940142631531 4.3551253825426102
leaf_count=22 35 23 24 30 20 32 24 22 31 30 33 27 20 33 27 38 23 39 33 20 20 27 23 24 24 27 20 21
internal_value=0.000613478 0.0199502 -0.0233053 -0.0429536 -0.0199034 0.016552 0.00821327 0.000929309 -0.117518 0.0093164 0.021085 0.00356812 -0.0104546 0.0106958 -0.0745182 -0.0224993 -0.0613944 0.0404167 0.0279481 0.0677451 0.0926304 -0.0051602 -0.0704127 -0.0316642 0.0970254 0.0907698 0.0888757 0.135033
internal_weight=168.137 92.9738 75.1631 54.3339 41.5037 24.1055 80.0471 75.2856 12.8302 69.8645 59.8958 47.864 41.0634 30.8713 10.1921 15.6534 9.96867 23.3059 20.8292 17.3682 12.9266 13.7465 17.3982 10.2212 12.938 12.0318 8.45208 8.21748
internal_count=772 435 337 242 187 110 372 348 55 325 280 223 190 143 47 70 45 110 95 83 63 62 77 47 63 57 40 41
is_linear=0
shrinkage=0.1


Tree=9
num_leaves=30
num_cat=0
split_feature=57 140 150 109 43 61 22 62 6 135 114 258 18 76 27 209 199 84 24 161 105 166 152 37 180 117 251 230 47
split_gain=7.20804 7.84969 7.6483 6.32864 5.61434 5.48316 5.40907 5.6662 5.72319 5.4066 6.10627 4.63468 4.61617 7.66695 4.44348 4.81204 4.30494 4.66164 6.69941 4.01331 3.31634 2.85655 2.69137 2.40346 2.3186 2.24842 1.75166 0.240254 0.0423316
threshold=0.050144042360101455 -2.104407042675255 -0.069771398231681284 -0.11067777386608074 -0.018832526781942849 -0.078615837591068785 0.055474225895253207 -0.072247302422740731 0.062377802921533256 -0.14799876573737489 -0.086869905865978883 -0.12103557949036488 -0.012039128051235349 -0.071653211975097844 0.065045439383450157 -0.076656866286209741 0.043228854289172704 -0.10557286559594499 0.069228673617498016 0.06786632217931117 -0.044389427111663847 -0.0018002820499252498 -0.037868825220525988 -0.014983548325589298 -1.0000000180025095e-35 0.076104937639494163 -0.19766694986728586 1.0000000180025095e-35 -0.056053213015517141
decision_type=2 2 2 2 2 2 2 2 2 2 2 2 2 2 2 2 2 2 2 2 2 2 2 2 2 2 2 2 2
left_child=1 -1 3 25 -2 -5 7 9 20 10 21 -12 22 -14 15 -11 17 18 -17 -13 -9 -4 28 -21 -7 -3 -19 -28 -6
right_child=4 2 6 5 12 24 -8 8 -10 14 11 19 13 -15 -16 16 -18 26 -20 23 -22 -23 -24 -25 -26 -27 27 -29 -30
leaf_value=-0.14637865816485129 -0.061708454063127333 -0.037406129731230073 -0.011583744926132667 0.0067018011653150597 0.14417104614515894 -0.15612662189745219 -0.0800870556549413 -0.045456924887006069 -0.11167348464519398 -0.045672977991422621 -0.060046019156672431 0.10312607465666389 0.12605139769537213 -0.037902647091853911 0.11945473117140173 -0.034742924598984475 -0.0385446528497983 0.053347970171547847 0.10804871363291822 -0.043283849644705052 0.051959330258857794 -0.12122372394983486 0.042074413521775822 0.049810378408114767 -0.068715899845199893 0.062133244425642942 0.1153770707300293 0.14800810753460858 0.13012180341860871
leaf_weight=4.0441178530454627 4.2301489710807827 4.3656530976295489 4.2813801616430283 4.456953480839732 4.2225324511528033 7.8017196655273464 6.6667110472917548 7.161322921514512 6.4683657288551322 6.2991340756416312 5.3532868325710288 7.3288171440362992 4.3784728944301614 8.1821339577436394 7.2743773609399787 7.9186000525951421 4.6594096869230262 4.0269992500543585 5.616019994020462 5.0384594798088091 6.8251108825206765 5.3404321968555433 4.5763311237096795 6.1685708016157115 4.9662209451198533 4.7257232666015625 4.269598051905632 4.7852014601230621 4.3582642376422882
leaf_count=17 20 20 19 20 21 35 29 31 27 28 24 37 21 36 36 37 21 19 30 22 33 23 22 29 22 22 23 23 25
internal_value=0.000642367 -0.00914791 -0.0049371 -0.0531657 0.0450506 -0.0887927 0.00709528 0.0129772 -0.0338917 0.0252116 -0.00517616 0.0219147 0.0626108 0.0192497 0.047917 0.0340676 0.0501278 0.0656506 0.0245067 0.0455856 0.00208034 -0.0724377 0.104006 0.00795705 -0.122127 0.0143347 0.108219 0.132622 0.137035
internal_weight=165.79 135.842 131.798 26.3163 29.9479 17.2249 105.482 98.8151 20.4548 78.3603 33.5109 23.8891 25.7177 12.5606 44.8493 37.575 31.2758 26.6164 13.5346 18.5358 13.9864 9.62181 13.1571 11.207 12.7679 9.09138 13.0818 9.0548 8.5808
internal_count=772 627 610 119 145 77 491 462 91 371 154 112 125 57 217 181 153 132 67 88 64 42 68 51 57 42 65 46 46
is_linear=0
shrinkage=0.1


Tree=10
num_leaves=31
num_cat=0
split_feature=140 91 140 220 13 10 188 140 128 20 156 35 173 223 55 223 227 1 200 10 49 21 263 129 218 76 26 23 40 257
split_gain=6.46451 7.2363 6.13206 4.8514 5.70948 4.57666 6.34828 4.7306 5.55553 4.35733 4.90261 4.33952 4.46178 4.2067 5.6283 5.13182 4.85997 7.23356 5.12049 4.52442 4.06374 5.20298 4.04534 3.95255 3.93022 3.90849 3.59504 2.42463 1.88286 0.720413
threshold=0.79868253422758217 -0.083184592858106532 1.0074345166093583 0.081980087849168062 0.017501161036329854 -0.032106644741308941 -0.071004282489361137 -2.104407042675255 -0.066178903872854633 -0.03333375962372389 0.0037822298717666504 -0.057136851681054444 -0.054135915184124396 -0.074917465446136533 -0.27098441908418297 -0.074957918265326884 -0.04282400694519254 49.500000000000007 -0.088866779257308681 -0.031209528410590347 -0.0061053462208536993 -0.037114339604527292 -0.11086208516923048 1.0000000180025095e-35 0.084261451888861014 -0.06985953166807353 -0.0011197323638257497 -0.059147083260384141 -0.025623026945545444 -0.16717412761967632
decision_type=2 2 2 2 2 2 2 2 2 2 2 2 2 2 2 2 2 2 2 2 2 2 2 2 2 2 2 2 2 2
left_child=1 -1 3 27 -5 6 26 8 -7 -8 -11 -4 -13 14 -9 23 17 22 19 24 -18 28 -15 -16 -19 -23 -3 -2 -22 -30
right_child=2 5 11 4 -6 7 9 13 -10 10 -12 12 -14 16 15 -17 20 18 -20 -21 21 25 -24 -25 -26 -27 -28 -29 29 -31
leaf_value=-0.1490430116913429 -0.048371196328544835 -0.13283031483491775 0.098007257680630427 0.068970902290550903 -0.091783253432342657 0.034737270254859592 -0.043165582966278121 -0.089046233656847482 -0.11588264958496633 0.13451076266266301 -0.012904870710839639 -0.090555779462410557 0.038643602924797169 0.0032405546887099672 0.1184753472976736 -0.066494566497317262 0.13392977759747246 0.068437336956838166 0.077869323305651578 -0.10819444925904441 0.039577398596003066 -0.077357770132951142 0.1232378335725199 0.0035212935601819152 -0.058229158879948978 0.052678563777963427 -0.014335548858619544 -0.14011969731124849 0.079479224508116175 0.1354921361073656
leaf_weight=2.7497922033071509 4.3392906039953223 6.0205922722816467 4.2821350246667853 4.3267027437686902 4.5148528814315796 4.872948169708252 6.6825274080038062 5.8870514482259777 4.9226674735546094 4.6728269159793836 4.3619004040956497 4.9668646901845923 5.7874499112367621 4.421302929520607 5.7833314985036886 4.4740237891674015 8.1136597394943184 4.4809604734182376 4.41815918684006 6.5055068433284751 5.1047837734222368 4.2377606779336929 7.7058768123388273 6.195179358124733 5.403509333729744 5.0849128365516734 4.4549490809440631 8.5670554935932177 3.6745583564043001 6.1212632507085845
leaf_count=12 20 26 22 20 20 22 30 26 21 22 20 21 26 21 29 20 44 22 22 28 25 20 42 28 25 25 20 39 21 33
internal_value=0.00066269 0.0114035 -0.0362309 -0.0701806 -0.0131166 0.0149731 -0.0221351 0.0249514 -0.0409549 0.0180566 0.0633396 0.012872 -0.0210269 0.0323202 -0.00513531 0.0248897 0.0451395 0.0181017 -0.0176757 -0.0434312 0.0726776 0.052161 0.0794895 0.0590221 -0.000807003 -0.0064314 -0.0824379 -0.109273 0.0888198 0.114481
internal_weight=163.134 126.35 36.7844 21.7479 8.84156 123.6 26.1928 97.4075 9.79562 15.7173 9.03473 15.0364 10.7543 87.6118 22.3396 16.4525 65.2723 32.9353 20.8081 16.39 32.3369 24.2233 12.1272 11.9785 9.88447 9.32267 10.4755 12.9063 14.9006 9.79582
internal_count=772 604 168 99 40 592 118 474 43 72 42 69 47 431 103 77 328 160 97 75 168 124 63 57 47 45 46 59 79 54
is_linear=0
shrinkage=0.1


Tree=11
num_leaves=31
num_cat=0
split_feature=57 45 149 140 258 97 4 39 77 142 97 218 43 142 43 46 43 120 85 180 220 201 200 182 35 174 156 108 258 158
split_gain=5.7868 6.01582 7.9403 6.01056 5.87738 5.36755 6.38845 5.85191 7.49712 5.1615 4.92349 4.35176 4.0428 4.31771 3.86065 5.53531 3.78135 3.7084 4.54338 3.89476 3.6435 3.40246 3.39887 2.59352 1.87866 1.76183 1.3725 1.24207 1.06664 0.751862
threshold=0.050243269247161659 0.040247742576473559 -0.039113244593083095 0.79491032843638842 -0.12105224031149943 -0.10008047245146649 0.059633966629674157 -0.017930937881790496 -0.094941481484490137 0.015469369821601152 -0.098695770381068679 0.069429723803011503 -0.018832526781942849 0.014131320774676352 -0.020909648950365445 0.022723651994480502 -0.018456724917670097 -0.053344140803532294 -0.11896817942879204 -0.076807702271231487 0.083412605962813205 -0.087108290821197129 -0.11506081525276558 -0.083127214426209184 -0.056424697010253537 -0.17140882367719176 0.0020929237172198504 -0.099540660219039248 -0.09624577021684054 -0.038697953454715391
decision_type=2 2 2 2 2 2 2 2 2 2 2 2 2 2 2 2 2 2 2 2 2 2 2 2 2 2 2 2 2 2
left_child=1 4 3 10 11 -6 7 8 20 14 -3 -1 -2 16 -9 -16 -14 -11 -19 -20 22 -12 -7 -21 -17 -10 -4 -26 -15 -27
right_child=12 2 26 -5 5 6 -8 9 25 17 21 -13 13 28 15 24 -18 18 19 23 -22 -23 -24 -25 27 29 -28 -29 -30 -31
leaf_value=0.0077838936905691505 -0.050816008297440554 -0.061696270696089989 -0.086707021319575514 -0.093688305082323786 -0.095663188991315387 -0.08521848060676844 -0.098136604154149751 -0.043881665162427586 0.054702794579060889 0.053977067068617449 -0.00037585237205617963 -0.11966554663198686 0.082607041234242742 0.13895541441660966 -0.016618398393569184 0.033982626748178445 -0.022425806671051554 -0.11283436435551278 0.065664252737055187 -0.10506410399025366 0.079750106538245269 0.12342605423102609 0.024029619217874547 -0.0021249209192052516 0.07034062228457838 0.092497028034168302 -0.16670413179962904 0.1451244470113448 0.070090723183230952 0.14644171729232611
leaf_weight=4.6279534399509412 3.9542568325996426 4.4572006314992931 4.0634947717189771 6.3891531080007544 4.4657053202390662 4.8761510401964197 4.5948617458343497 5.1850903928279903 4.872837260365487 4.3569603934884098 4.0824602544307727 6.3620843887329102 6.0702526122331655 5.5705697238445282 7.4247915744781521 4.0204213410615912 7.8735702186822873 7.0578797608614012 4.2349421381950405 4.4921914786100414 5.1128301024436942 4.8658050447702408 6.8459895402193078 5.3772974535822771 3.6556880921125403 4.0654640644788751 4.541805312037468 5.6587006896734229 3.7723104506731016 7.088739573955535
leaf_count=22 19 20 20 30 20 22 20 26 24 22 19 28 31 30 35 19 38 32 22 20 25 26 32 27 19 20 20 29 19 36
internal_value=0.000686913 -0.00792672 -0.0487332 -0.0138699 0.00317637 0.0113168 0.0166895 0.0229463 0.0559128 0.00189569 0.0241722 -0.065996 0.042671 0.0585458 0.0333041 0.0525827 0.0232988 -0.0300363 -0.0473333 -0.0145564 0.00930902 0.066944 -0.0214152 -0.0489787 0.0911137 0.104866 -0.128929 0.115773 0.11115 0.12678
internal_weight=160.017 132.776 28.3999 19.7946 104.377 93.3865 88.9208 84.326 32.862 51.464 13.4055 10.99 27.241 23.2867 25.9447 20.7596 13.9438 25.5193 21.1623 14.1044 16.835 8.94827 11.7221 9.86949 13.3348 16.027 8.6053 9.31439 9.34288 11.1542
internal_count=772 635 135 95 500 450 430 410 159 251 65 50 137 118 128 102 69 123 101 69 79 45 54 47 67 80 40 48 49 56
is_linear=0
shrinkage=0.1


Tree=12
num_leaves=31
num_cat=0
split_feature=18 157 219 63 89 168 46 10 206 59 15 3 78 93 105 166 243 53 91 223 37 217 247 27 39 175 33 208 151 243
split_gain=4.82336 6.02882 5.0499 4.80644 6.8255 5.0634 4.85349 4.7023 4.30949 4.22989 3.70873 3.65751 4.52714 3.77478 6.64044 3.93861 4.02926 3.5038 3.49986 3.80054 3.36573 3.35167 2.96169 3.11505 2.9419 2.81661 2.55312 2.03251 0.23943 0.228838
threshold=-0.012040330284474298 0.0014644596206185002 0.070928718095598017 -0.077089164351088743 -0.071655472515407645 0.057416630358759012 0.022480895549647904 -0.033697611752773797 -0.13700211197383114 -0.090748330938162688 0.055566896706125454 -0.073429286566110877 -0.091774809668098992 -0.082795088860338636 -0.10183134909634989 -0.0022256285082637994 -0.098216876503595493 -0.10569487087033079 -0.081351149356851796 -0.074700418984036482 -0.015497626018845049 0.025928640852551355 -0.19037551599124689 0.062982337639791858 -0.0046035004209884489 -0.026210791770408446 0.026303545781580406 -0.10885538924962299 -0.038656437031429298 -0.08551737280278289
decision_type=2 2 2 2 2 2 2 2 2 2 2 2 2 2 2 2 2 2 2 2 2 2 2 2 2 2 2 2 2 2
left_child=1 17 7 10 9 22 -7 -3 -8 -5 21 -9 13 14 20 -16 -17 -1 19 -15 25 -2 -6 -24 -14 -13 -10 -18 -19 -21
right_child=3 2 -4 4 5 6 8 11 26 -11 -12 12 24 18 15 16 27 28 -20 29 -22 -23 23 -25 -26 -27 -28 -29 -30 -31
leaf_value=0.0045022224535475669 0.098269577006570852 -0.090865715412920586 0.112488418950327 -0.032755521212054432 -0.12971920236314166 -0.075421838253471415 -0.020557666332023154 0.08636494304278626 0.015357436115282211 -0.15329034914239115 -0.045736849933268736 0.016044510745343264 -0.0041936303758143409 0.00094631393307830012 0.024559984328599488 0.00081531417771343721 -0.067659858297974107 0.13641102590411722 -0.020857037236406001 0.13802093247449107 -0.029665281028117458 -0.00092830022598405922 0.031846345986741541 -0.071564159672790284 -0.11793543974158455 0.1151328796733917 0.11598411802174993 -0.16326852638030009 0.10109319809197442 0.10329943395769769
leaf_weight=3.8008577823638916 7.2646251469850558 5.296129882335662 4.2111747711896887 5.1226691603660583 4.1676457524299648 4.6299278289079693 7.2193256765604046 5.3456541150808325 3.9788317084312421 6.7446775734424573 5.4588393270969382 5.3593708276748666 4.2677005976438522 3.9165180027484903 5.4022769182920412 4.471511602401729 4.4389135837554869 4.5299037396907806 4.7568341046571723 4.1367624402046212 4.9260001480579296 6.4128109961748123 4.7005132585763914 7.6598876118659973 4.8676303923130089 6.1726692467927942 6.883625328540802 4.4551546573639067 3.3309864699840528 3.5076265186071396
leaf_count=18 37 23 24 24 18 21 34 29 20 31 26 26 21 19 26 21 21 25 24 22 24 31 24 34 21 33 35 19 20 21
internal_value=0.000700306 0.0164105 0.00607837 -0.0188009 -0.0348074 -0.01471 0.0159339 -0.000204669 0.039326 -0.10126 0.0239476 0.00706766 8.17805e-05 0.011581 -0.00683766 -0.047496 -0.0766205 0.0833307 0.0513422 0.0810492 0.0395269 0.0517596 -0.0568187 -0.0322384 -0.0647993 0.0690828 0.0791254 -0.115551 0.121445 0.122089
internal_weight=157.437 87.1937 75.5319 70.2434 51.1071 39.2398 22.7117 71.3208 18.0818 11.8673 19.1363 66.0246 60.679 51.5436 35.2259 18.7679 13.3656 11.6617 16.3177 11.5609 16.458 13.6774 16.528 12.3604 9.13533 11.532 10.8625 8.89407 7.86089 7.64439
internal_count=772 437 374 335 241 186 110 350 89 55 94 327 298 256 170 87 61 63 86 62 83 68 76 58 42 59 55 40 45 43
is_linear=0
shrinkage=0.1


Tree=13
num_leaves=31
num_cat=0
split_feature=57 140 140 18 223 119 5 93 121 33 13 203 116 214 33 251 8 13 20 43 142 18 195 167 263 13 215 77 175 258
split_gain=4.55937 5.23423 5.33021 4.9802 4.64571 5.28247 3.95045 7.68726 3.72324 4.02599 3.7587 3.70722 3.40827 4.73855 3.13904 9.06108 4.62898 4.75658 3.27864 3.07137 3.9116 3.51186 3.00014 2.92734 2.87843 2.26279 2.25829 1.52008 1.27433 1.07538
threshold=0.050243269247161659 -2.104407042675255 0.79868253422758217 -0.012800794821266949 -0.074922411241923836 -0.086945573157562642 -0.061728601344939092 -0.083806782898869989 -1.0000000180025095e-35 0.026525711380421754 0.017488359217347402 -0.22537119261546876 -0.061930501154111195 -0.12343369000547198 0.026573242692495003 -0.1861791069745686 -0.06343195174803333 0.017484006129845155 -0.032559729653591843 -0.018717129661950497 0.014131320774676352 -0.012021104280004547 -0.04337236708230164 0.0090844785607295513 -1.0000000180025095e-35 0.017515408110211555 -0.065363733112949227 -0.093412869630737083 -0.025871896920629144 -0.09624577021684054
decision_type=2 2 2 2 2 2 2 2 2 2 2 2 2 2 2 2 2 2 2 2 2 2 2 2 2 2 2 2 2 2
left_child=1 -1 4 -4 6 -6 22 -8 9 10 -5 -7 -13 -14 16 -16 17 18 24 -2 21 25 -3 -9 -15 -21 -17 -10 -19 -22
right_child=19 2 3 8 5 11 7 23 27 -11 -12 12 13 14 15 26 -18 28 -20 20 29 -23 -24 -25 -26 -27 -28 -29 -30 -31
leaf_value=-0.12218793222683938 -0.04119719700326404 -0.13464328583025639 0.065478148195923971 0.0060452308438719128 -0.081403882057124191 -0.044511177207760017 0.11984754092660928 -0.094145127687619623 -0.14120325905414524 0.032296557014719514 -0.10960510035642067 0.10216631102748322 -0.069564122077341722 0.11948635527443721 -0.11939231516427691 0.005740527359014631 -0.035284497225777665 0.13567299816171643 -0.035997612234226539 0.010385900338314494 0.13486629377472295 -0.054889874816100394 -0.021626090705477274 0.0079792417980638335 0.010673076394712631 0.1105840132860962 0.11496954352975169 -0.060729351586192706 0.072825580692017736 0.063602044056761134
leaf_weight=3.8304888308048239 4.0678016543388393 4.8068941980600357 4.0285615026950827 4.6766739785671252 4.5828380435705176 6.0694912970066062 4.1148370951414099 5.2787294387817365 5.1487224251031876 7.0240942090749732 7.0415442287921906 7.169192597270011 4.4904792159795752 4.7457469925284377 4.4269529283046722 3.7614247873425484 4.9560545980930391 8.5073721557855588 4.9833422452211407 5.1093266382813471 5.1274115964770317 4.3124531209468833 4.5932902693748492 5.9939011186361313 4.9842384159564892 4.032831110060215 3.8100632876157743 4.3138664662838 5.1973569244146338 3.6071064472198469
leaf_count=17 20 21 20 23 21 29 22 23 26 33 32 39 21 26 19 20 23 47 24 26 30 19 21 29 27 23 23 21 28 19
internal_value=0.00070981 -0.00704705 -0.00351035 -0.0385275 0.00869574 0.0222599 -0.0283422 0.00286033 -0.0533829 -0.0275667 -0.0634497 0.0297886 0.0376958 0.0284263 0.0381244 -0.00574328 0.0538954 0.0694482 0.0299634 0.0386821 0.0533259 0.0194968 -0.0794188 -0.0398434 0.0637462 0.0545858 0.0607059 -0.104516 0.111839 0.105436
internal_weight=154.793 128.536 124.706 32.2335 92.4722 67.6846 24.7877 15.3875 28.2049 18.7423 11.7182 63.1017 57.0322 49.863 45.3726 11.9984 33.3741 28.4181 14.7133 26.2569 22.1891 13.4546 9.40018 11.2726 9.72999 9.14216 7.57149 9.46259 13.7047 8.73452
internal_count=772 635 618 155 463 347 116 74 135 88 55 326 297 258 237 62 175 152 77 137 117 68 42 52 53 49 43 47 75 49
is_linear=0
shrinkage=0.1


end of trees

feature_importances:
Tax_Rate_For_Calcs=23
Changes_In_Cash=19
Net_Common_Stock_Issuance=15
Asset_Impairment_Charge=11
Gain_Loss_On_Investment_Securities=8
Change_In_Prepaid_Assets=7
Change_In_Receivables=7
Other_Non_Cash_Items=7
Repayment_Of_Debt=6
Net_Other_Financing_Charges=6
Total_Unusual_Items=6
Gain_On_Sale_Of_Security=6
Issuance_Of_Debt=5
Net_Issuance_Payments_Of_Debt=5
Change_In_Other_Current_Liabilities=5
Capital_Stock=5
Construction_In_Progress=5
Special_Income_Charges=5
Sale_Of_PPE=5
Long_Term_Debt_Payments=4
Net_Other_Investing_Changes=4
Change_In_Working_Capital=4
Net_Debt=4
Other_Non_Current_Assets=4
Investments_And_Advances=4
Non_Current_Deferred_Taxes_Liabilities=4
Purchase_Of_PPE=4
Other_Short_Term_Investments=4
Sector=3
Industry=3
Free_Cash_Flow=3
Beginning_Cash_Position=3
Cash_Dividends_Paid=3
Net_Investment_Purchase_And_Sale=3
Purchase_Of_Investment=3
Change_In_Payable=3
Deferred_Tax=3
Depreciation=3
Ordinary_Shares_Number=3
Tangible_Book_Value=3
Employee_Benefits=3
Long_Term_Debt_And_Capital_Lease_Obligation=3
Current_Debt=3
Other_Current_Borrowings=3
Net_PPE=3
Accumulated_Depreciation=3
Machinery_Furniture_Equipment=3
Prepaid_Assets=3
Tax_Effect_Of_Unusual_Items=3
Diluted_EPS=3
Basic_EPS=3
Other_Income_Expense=3
Other_Non_Operating_Income_Expenses=3
Restructuring_And_Mergern_Acquisition=3
Other_Operating_Expenses=3
Restricted_Cash=3
Interest_Income_Non_Operating=3
Treasury_Shares_Number=3
Capital_Expenditure=2
Long_Term_Debt_Issuance=2
Investing_Cash_Flow=2
Change_In_Other_Working_Capital=2
Change_In_Other_Current_Assets=2
Change_In_Payables_And_Accrued_Expense=2
Pension_And_Employee_Benefit_Expense=2
Share_Issued=2
Total_Debt=2
Retained_Earnings=2
Additional_Paid_In_Capital=2
Common_Stock=2
Long_Term_Debt=2
Current_Liabilities=2
Current_Debt_And_Capital_Lease_Obligation=2
Total_Assets=2
Goodwill_And_Other_Intangible_Assets=2
Other_Intangible_Assets=2
Other_Properties=2
Other_Current_Assets=2
Receivables=2
Other_Receivables=2
Accounts_Receivable=2
Interest_Expense=2
Normalized_Income=2
Minority_Interests=2
Gain_On_Sale_Of_Business=2
Write_Off=2
Earnings_From_Equity_Interest=2
Operating_Revenue=2
Short_Term_Debt_Issuance=2
Interest_Income=2
Net_Business_Purchase_And_Sale=2
Purchase_Of_Business=2
Net_PPE_Purchase_And_Sale=2
Current_Capital_Lease_Obligation=2
Income_Tax_Payable=2
Long_Term_Equity_Investment=2
Salaries_And_Wages=2
Net_Foreign_Currency_Exchange_Gain_Loss=2
Financial_Assets_Designatedas_Fair_Value_Through_Profitor_Loss_Total=2
Repurchase_Of_Capital_Stock=1
End_Cash_Position=1
Cash_Flow_From_Continuing_Financing_Activities=1
Proceeds_From_Stock_Option_Exercised=1
Common_Stock_Dividend_Paid=1
Net_Long_Term_Debt_Issuance=1
Cash_Flow_From_Continuing_Investing_Activities=1
Change_In_Account_Payable=1
Change_In_Inventory=1
Stock_Based_Compensation=1
Earnings_Losses_From_Equity_Investments=1
Capital_Lease_Obligations=1
Other_Non_Current_Liabilities=1
Non_Current_Pension_And_Other_Postretirement_Benefit_Plans=1
Long_Term_Capital_Lease_Obligation=1
Payables=1
Total_Tax_Payable=1
Non_Current_Prepaid_Assets=1
Non_Current_Deferred_Assets=1
Non_Current_Deferred_Taxes_Assets=1
Goodwill=1
Inventory=1
Raw_Materials=1
Cash_Cash_Equivalents_And_Short_Term_Investments=1
Normalized_EBITDA=1
Net_Interest_Income=1
Net_Income_From_Continuing_And_Discontinued_Operation=1
Diluted_Average_Shares=1
Diluted_NI_Availto_Com_Stockholders=1
Depreciation_And_Amortization_In_Income_Statement=1
Selling_General_And_Administration=1
Total_Revenue=1
Interest_Paid_Supplemental_Data=1
Income_Tax_Paid_Supplemental_Data=1
Common_Stock_Issuance=1
Net_Short_Term_Debt_Issuance=1
Changes_In_Account_Receivables=1
Current_Deferred_Liabilities=1
Line_Of_Credit=1
Gross_Accounts_Receivable=1
General_And_Administrative_Expense=1
Preferred_Stock_Dividends=1
Selling_And_Marketing_Expense=1
Treasury_Stock=1
Available_For_Sale_Securities=1
Investmentsin_Associatesat_Cost=1

parameters:
[boosting: gbdt]
[objective: binary]
[metric: l2]
[tree_learner: serial]
[device_type: cpu]
[data_sample_strategy: bagging]
[data: ]
[valid: ]
[num_iterations: 100]
[learning_rate: 0.1]
[num_leaves: 31]
[num_threads: 0]
[seed: 0]
[deterministic: 0]
[force_col_wise: 0]
[force_row_wise: 0]
[histogram_pool_size: -1]
[max_depth: -1]
[min_data_in_leaf: 20]
[min_sum_hessian_in_leaf: 0.001]
[bagging_fraction: 1]
[pos_bagging_fraction: 1]
[neg_bagging_fraction: 1]
[bagging_freq: 0]
[bagging_seed: 3]
[bagging_by_query: 0]
[feature_fraction: 1]
[feature_fraction_bynode: 1]
[feature_fraction_seed: 2]
[extra_trees: 0]
[extra_seed: 6]
[early_stopping_round: 0]
[early_stopping_min_delta: 0]
[first_metric_only: 0]
[max_delta_step: 0]
[lambda_l1: 0]
[lambda_l2: 0]
[linear_lambda: 0]
[min_gain_to_split: 0]
[drop_rate: 0.1]
[max_drop: 50]
[skip_drop: 0.5]
[xgboost_dart_mode: 0]
[uniform_drop: 0]
[drop_seed: 4]
[top_rate: 0.2]
[other_rate: 0.1]
[min_data_per_group: 100]
[max_cat_threshold: 32]
[cat_l2: 10]
[cat_smooth: 10]
[max_cat_to_onehot: 4]
[top_k: 20]
[monotone_constraints: ]
[monotone_constraints_method: basic]
[monotone_penalty: 0]
[feature_contri: ]
[forcedsplits_filename: ]
[refit_decay_rate: 0.9]
[cegb_tradeoff: 1]
[cegb_penalty_split: 0]
[cegb_penalty_feature_lazy: ]
[cegb_penalty_feature_coupled: ]
[path_smooth: 0]
[interaction_constraints: ]
[verbosity: 1]
[saved_feature_importance_type: 0]
[use_quantized_grad: 0]
[num_grad_quant_bins: 4]
[quant_train_renew_leaf: 0]
[stochastic_rounding: 1]
[linear_tree: 0]
[max_bin: 255]
[max_bin_by_feature: ]
[min_data_in_bin: 3]
[bin_construct_sample_cnt: 200000]
[data_random_seed: 1]
[is_enable_sparse: 1]
[enable_bundle: 1]
[use_missing: 1]
[zero_as_missing: 0]
[feature_pre_filter: 1]
[pre_partition: 0]
[two_round: 0]
[header: 0]
[label_column: ]
[weight_column: ]
[group_column: ]
[ignore_column: ]
[categorical_feature: ]
[forcedbins_filename: ]
[precise_float_parser: 0]
[parser_config_file: ]
[objective_seed: 5]
[num_class: 1]
[is_unbalance: 0]
[scale_pos_weight: 1]
[sigmoid: 1]
[boost_from_average: 1]
[reg_sqrt: 0]
[alpha: 0.9]
[fair_c: 1]
[poisson_max_delta_step: 0.7]
[tweedie_variance_power: 1.5]
[lambdarank_truncation_level: 30]
[lambdarank_norm: 1]
[label_gain: ]
[lambdarank_position_bias_regularization: 0]
[eval_at: ]
[multi_error_top_k: 1]
[auc_mu_weights: ]
[num_machines: 1]
[local_listen_port: 12400]
[time_out: 120]
[machine_list_filename: ]
[machines: ]
[gpu_platform_id: -1]
[gpu_device_id: -1]
[gpu_use_dp: 0]
[num_gpu: 1]

end of parameters

pandas_categorical:[]
